FANN_FLO_2.0
num_layers=4
learning_rate=0.700000
connection_rate=1.000000
shortcut_connections=0
learning_momentum=0.000000
training_algorithm=2
train_error_function=1
train_stop_function=0
cascade_output_change_fraction=0.010000
quickprop_decay=-0.000100
quickprop_mu=1.750000
rprop_increase_factor=1.200000
rprop_decrease_factor=0.500000
rprop_delta_min=0.000000
rprop_delta_max=50.000000
rprop_delta_zero=0.500000
cascade_output_stagnation_epochs=12
cascade_candidate_change_fraction=0.010000
cascade_candidate_stagnation_epochs=12
cascade_max_out_epochs=150
cascade_max_cand_epochs=150
cascade_num_candidate_groups=2
bit_fail_limit=3.49999994039535520000e-001
cascade_candidate_limit=1.00000000000000000000e+003
cascade_weight_multiplier=4.00000005960464480000e-001
cascade_activation_functions_count=6
cascade_activation_functions=3 5 7 8 10 11 
cascade_activation_steepnesses_count=4
cascade_activation_steepnesses=2.50000000000000000000e-001 5.00000000000000000000e-001 7.50000000000000000000e-001 1.00000000000000000000e+000 
layer_sizes=3 6 4 2 
neurons (num_inputs, activation_function, activation_steepness)=(0, 0, 0.00000000000000000000e+000) (0, 0, 0.00000000000000000000e+000) (0, 0, 0.00000000000000000000e+000) (3, 5, 5.00000000000000000000e-001) (3, 5, 5.00000000000000000000e-001) (3, 5, 5.00000000000000000000e-001) (3, 5, 5.00000000000000000000e-001) (3, 5, 5.00000000000000000000e-001) (0, 5, 0.00000000000000000000e+000) (6, 5, 5.00000000000000000000e-001) (6, 5, 5.00000000000000000000e-001) (6, 5, 5.00000000000000000000e-001) (0, 5, 0.00000000000000000000e+000) (4, 5, 5.00000000000000000000e-001) (0, 5, 0.00000000000000000000e+000) 
connections (connected_to_neuron, weight)=(0, 2.50847506523132320000e+000) (1, 1.62120246887207030000e+000) (2, -8.25700759887695310000e-001) (0, -1.43240869045257570000e+000) (1, 2.17194442749023440000e+001) (2, 1.75409603118896480000e+000) (0, 2.04131460189819340000e+000) (1, 1.55455398559570310000e+000) (2, -4.35285776853561400000e-001) (0, -9.12973761558532710000e-001) (1, 1.19109239578247070000e+001) (2, 1.73410558700561520000e+000) (0, 1.29881814122200010000e-001) (1, 1.10922324657440190000e+000) (2, -1.47497728466987610000e-001) (3, 2.46124410629272460000e+000) (4, -9.46670949459075930000e-001) (5, 2.31011199951171870000e+000) (6, 4.16754744946956630000e-002) (7, 7.17191362380981450000e+000) (8, -1.55429765582084660000e-001) (3, 2.40964317321777340000e+000) (4, -7.38427639007568360000e-001) (5, 2.17372131347656250000e+000) (6, 1.87333375215530400000e-002) (7, 6.65224885940551760000e+000) (8, -1.46239951252937320000e-001) (3, -7.53725528717041020000e-001) (4, 2.24491572380065920000e+000) (5, -5.09177446365356450000e-001) (6, 1.77553606033325200000e+000) (7, 2.22107911109924320000e+000) (8, 1.57552397251129150000e+000) (9, -1.91104602813720700000e+000) (10, -2.02341818809509280000e+000) (11, 2.69354748725891110000e+000) (12, 2.59098339080810550000e+000) 
