FANN_FLO_2.1
num_layers=4
learning_rate=0.700000
connection_rate=1.000000
network_type=0
learning_momentum=0.000000
training_algorithm=2
train_error_function=1
train_stop_function=0
cascade_output_change_fraction=0.010000
quickprop_decay=-0.000100
quickprop_mu=1.750000
rprop_increase_factor=1.200000
rprop_decrease_factor=0.500000
rprop_delta_min=0.000000
rprop_delta_max=50.000000
rprop_delta_zero=0.100000
cascade_output_stagnation_epochs=12
cascade_candidate_change_fraction=0.010000
cascade_candidate_stagnation_epochs=12
cascade_max_out_epochs=150
cascade_min_out_epochs=50
cascade_max_cand_epochs=150
cascade_min_cand_epochs=50
cascade_num_candidate_groups=2
bit_fail_limit=3.49999994039535520000e-001
cascade_candidate_limit=1.00000000000000000000e+003
cascade_weight_multiplier=4.00000005960464480000e-001
cascade_activation_functions_count=10
cascade_activation_functions=3 5 7 8 10 11 14 15 16 17 
cascade_activation_steepnesses_count=4
cascade_activation_steepnesses=2.50000000000000000000e-001 5.00000000000000000000e-001 7.50000000000000000000e-001 1.00000000000000000000e+000 
layer_sizes=3 6 4 2 
scale_included=0
neurons (num_inputs, activation_function, activation_steepness)=(0, 0, 0.00000000000000000000e+000) (0, 0, 0.00000000000000000000e+000) (0, 0, 0.00000000000000000000e+000) (3, 5, 5.00000000000000000000e-001) (3, 5, 5.00000000000000000000e-001) (3, 5, 5.00000000000000000000e-001) (3, 5, 5.00000000000000000000e-001) (3, 5, 5.00000000000000000000e-001) (0, 5, 0.00000000000000000000e+000) (6, 5, 5.00000000000000000000e-001) (6, 5, 5.00000000000000000000e-001) (6, 5, 5.00000000000000000000e-001) (0, 5, 0.00000000000000000000e+000) (4, 5, 5.00000000000000000000e-001) (0, 5, 0.00000000000000000000e+000) 
connections (connected_to_neuron, weight)=(0, -3.10518711805343630000e-001) (1, 3.25814962387084960000e-001) (2, 7.85683810710906980000e-001) (0, 1.41778159141540530000e+000) (1, 6.58942222595214840000e-001) (2, -4.77343201637268070000e-001) (0, -4.83819627761840820000e+000) (1, 8.86973876953125000000e+001) (2, 2.92721241712570190000e-001) (0, -7.22989439964294430000e-001) (1, -2.64772057533264160000e-001) (2, 9.70199480652809140000e-002) (0, -3.05693566799163820000e-001) (1, 5.36256492137908940000e-001) (2, 1.57418251037597660000e-001) (3, -1.80763888359069820000e+000) (4, 5.95886945724487300000e+000) (5, 7.24633693695068360000e-001) (6, -2.27653160691261290000e-001) (7, -2.64247798919677730000e+000) (8, -2.08049789071083070000e-001) (3, 2.40018939971923830000e+000) (4, -1.25154280662536620000e+000) (5, 7.96929478645324710000e-001) (6, 6.57651364803314210000e-001) (7, -5.46824359893798830000e+000) (8, 1.35776865482330320000e+000) (3, 2.04028749465942380000e+000) (4, -1.25360381603240970000e+000) (5, 3.94728153944015500000e-001) (6, 6.62626683712005620000e-001) (7, -7.86855268478393550000e+000) (8, 1.31305682659149170000e+000) (9, -3.47698807716369630000e+000) (10, 2.45766782760620120000e+000) (11, 2.00767135620117190000e+000) (12, 1.45692145824432370000e+000) 
